{
  "sizes": [
    196,
    98,
    1
  ],
  "layers": [
    {
      "0": {},
      "1": {},
      "2": {},
      "3": {},
      "4": {},
      "5": {},
      "6": {},
      "7": {},
      "8": {},
      "9": {},
      "10": {},
      "11": {},
      "12": {},
      "13": {},
      "14": {},
      "15": {},
      "16": {},
      "17": {},
      "18": {},
      "19": {},
      "20": {},
      "21": {},
      "22": {},
      "23": {},
      "24": {},
      "25": {},
      "26": {},
      "27": {},
      "28": {},
      "29": {},
      "30": {},
      "31": {},
      "32": {},
      "33": {},
      "34": {},
      "35": {},
      "36": {},
      "37": {},
      "38": {},
      "39": {},
      "40": {},
      "41": {},
      "42": {},
      "43": {},
      "44": {},
      "45": {},
      "46": {},
      "47": {},
      "48": {},
      "49": {},
      "50": {},
      "51": {},
      "52": {},
      "53": {},
      "54": {},
      "55": {},
      "56": {},
      "57": {},
      "58": {},
      "59": {},
      "60": {},
      "61": {},
      "62": {},
      "63": {},
      "64": {},
      "65": {},
      "66": {},
      "67": {},
      "68": {},
      "69": {},
      "70": {},
      "71": {},
      "72": {},
      "73": {},
      "74": {},
      "75": {},
      "76": {},
      "77": {},
      "78": {},
      "79": {},
      "80": {},
      "81": {},
      "82": {},
      "83": {},
      "84": {},
      "85": {},
      "86": {},
      "87": {},
      "88": {},
      "89": {},
      "90": {},
      "91": {},
      "92": {},
      "93": {},
      "94": {},
      "95": {},
      "96": {},
      "97": {},
      "98": {},
      "99": {},
      "100": {},
      "101": {},
      "102": {},
      "103": {},
      "104": {},
      "105": {},
      "106": {},
      "107": {},
      "108": {},
      "109": {},
      "110": {},
      "111": {},
      "112": {},
      "113": {},
      "114": {},
      "115": {},
      "116": {},
      "117": {},
      "118": {},
      "119": {},
      "120": {},
      "121": {},
      "122": {},
      "123": {},
      "124": {},
      "125": {},
      "126": {},
      "127": {},
      "128": {},
      "129": {},
      "130": {},
      "131": {},
      "132": {},
      "133": {},
      "134": {},
      "135": {},
      "136": {},
      "137": {},
      "138": {},
      "139": {},
      "140": {},
      "141": {},
      "142": {},
      "143": {},
      "144": {},
      "145": {},
      "146": {},
      "147": {},
      "148": {},
      "149": {},
      "150": {},
      "151": {},
      "152": {},
      "153": {},
      "154": {},
      "155": {},
      "156": {},
      "157": {},
      "158": {},
      "159": {},
      "160": {},
      "161": {},
      "162": {},
      "163": {},
      "164": {},
      "165": {},
      "166": {},
      "167": {},
      "168": {},
      "169": {},
      "170": {},
      "171": {},
      "172": {},
      "173": {},
      "174": {},
      "175": {},
      "176": {},
      "177": {},
      "178": {},
      "179": {},
      "180": {},
      "181": {},
      "182": {},
      "183": {},
      "184": {},
      "185": {},
      "186": {},
      "187": {},
      "188": {},
      "189": {},
      "190": {},
      "191": {},
      "192": {},
      "193": {},
      "194": {},
      "195": {}
    },
    {
      "0": {
        "bias": 0.1371547430753708,
        "weights": {
          "0": -0.2016381025314331,
          "1": 0.034448884427547455,
          "2": 0.14406980574131012,
          "3": 0.054759681224823,
          "4": -0.0034449445083737373,
          "5": -0.18099956214427948,
          "6": 0.13369329273700714,
          "7": 0.0471077524125576,
          "8": 0.03780090808868408,
          "9": 0.012298248708248138,
          "10": 0.07647601515054703,
          "11": 0.12038393318653107,
          "12": -0.11845025420188904,
          "13": 0.1326695680618286,
          "14": -0.2149180918931961,
          "15": -0.22538115084171295,
          "16": 0.027188880369067192,
          "17": 0.04510008543729782,
          "18": -0.19277171790599823,
          "19": -0.024256544187664986,
          "20": -0.05358177796006203,
          "21": -0.054936379194259644,
          "22": -0.013050737790763378,
          "23": -0.03055538795888424,
          "24": -0.11478880792856216,
          "25": 0.0858965516090393,
          "26": 0.10902349650859833,
          "27": -0.09562840312719345,
          "28": 0.06090500205755234,
          "29": -0.0289507694542408,
          "30": -0.18162423372268677,
          "31": 0.07790321856737137,
          "32": -0.16764001548290253,
          "33": 0.1371668577194214,
          "34": 0.1464718133211136,
          "35": -0.20984390377998352,
          "36": 0.017500275745987892,
          "37": -0.06868204474449158,
          "38": 0.1794869601726532,
          "39": 0.116460882127285,
          "40": -0.19181038439273834,
          "41": -0.10734111070632935,
          "42": 0.03439709171652794,
          "43": 0.1086377203464508,
          "44": -0.09805531799793243,
          "45": 0.18894319236278534,
          "46": 0.06524248421192169,
          "47": 0.11197780817747116,
          "48": -0.009796281345188618,
          "49": -0.11428128182888031,
          "50": 0.13714972138404846,
          "51": -0.20222310721874237,
          "52": -0.0340774841606617,
          "53": -0.17258404195308685,
          "54": 0.07692106813192368,
          "55": -0.030774714425206184,
          "56": -0.17687901854515076,
          "57": -0.008022813126444817,
          "58": -0.012389455921947956,
          "59": -0.1686200201511383,
          "60": 0.13945841789245605,
          "61": -0.13044030964374542,
          "62": -0.023181678727269173,
          "63": -0.10921546071767807,
          "64": -0.08565088361501694,
          "65": 0.1503341645002365,
          "66": -0.16027390956878662,
          "67": 0.006228867452591658,
          "68": 0.01909547857940197,
          "69": 0.08196187019348145,
          "70": 0.059537239372730255,
          "71": -0.008854120969772339,
          "72": 0.18742771446704865,
          "73": -0.019252153113484383,
          "74": -0.22070252895355225,
          "75": -0.057377297431230545,
          "76": 0.09685108810663223,
          "77": -0.15053007006645203,
          "78": 0.167347714304924,
          "79": -0.22633583843708038,
          "80": 0.008416539989411831,
          "81": 0.1175270602107048,
          "82": 0.0568697415292263,
          "83": -0.22046925127506256,
          "84": 0.15316912531852722,
          "85": 0.0120439687743783,
          "86": -0.07048939913511276,
          "87": 0.05607093870639801,
          "88": -0.1494939923286438,
          "89": 0.0992681160569191,
          "90": -0.10291343182325363,
          "91": 0.03616579994559288,
          "92": -0.08541294187307358,
          "93": -0.21960735321044922,
          "94": -0.05100525915622711,
          "95": 0.1749493032693863,
          "96": 0.14096182584762573,
          "97": 0.09656666219234467,
          "98": 0.06698234379291534,
          "99": -0.17606833577156067,
          "100": -0.0926031619310379,
          "101": -0.19018332660198212,
          "102": -0.22039249539375305,
          "103": -0.00007896200258983299,
          "104": 0.08958224207162857,
          "105": -0.19805385172367096,
          "106": -0.049334973096847534,
          "107": -0.08576083183288574,
          "108": 0.04309646412730217,
          "109": -0.06708085536956787,
          "110": 0.08053698390722275,
          "111": 0.16493965685367584,
          "112": -0.18041512370109558,
          "113": 0.07828430831432343,
          "114": 0.13391616940498352,
          "115": -0.12521129846572876,
          "116": -0.22027911245822906,
          "117": -0.1834460198879242,
          "118": 0.158779114484787,
          "119": -0.08643250912427902,
          "120": -0.0700802281498909,
          "121": -0.07548170536756516,
          "122": 0.15131981670856476,
          "123": -0.07021941244602203,
          "124": 0.047563549131155014,
          "125": -0.11847640573978424,
          "126": -0.0837961733341217,
          "127": 0.06714577227830887,
          "128": -0.10069703310728073,
          "129": -0.14081929624080658,
          "130": -0.17358213663101196,
          "131": -0.08504724502563477,
          "132": -0.03351988270878792,
          "133": -0.14399933815002441,
          "134": 0.1482401043176651,
          "135": 0.09898737818002701,
          "136": 0.21036110818386078,
          "137": -0.07946804165840149,
          "138": -0.18844036757946014,
          "139": 0.09714601933956146,
          "140": 0.02313731610774994,
          "141": 0.035634614527225494,
          "142": -0.21527723968029022,
          "143": 0.1460876315832138,
          "144": 0.09617652744054794,
          "145": 0.10562563687562943,
          "146": 0.09979229420423508,
          "147": -0.010522388853132725,
          "148": 0.20333725214004517,
          "149": 0.10924682766199112,
          "150": 0.12632016837596893,
          "151": -0.15149807929992676,
          "152": 0.14320766925811768,
          "153": 0.14533911645412445,
          "154": 0.009038465097546577,
          "155": -0.1775398701429367,
          "156": -0.1457751989364624,
          "157": -0.21742777526378632,
          "158": -0.07270622998476028,
          "159": 0.09188223630189896,
          "160": -0.04378674924373627,
          "161": -0.08420045673847198,
          "162": 0.17189522087574005,
          "163": 0.20837385952472687,
          "164": -0.12577269971370697,
          "165": 0.09630707651376724,
          "166": -0.12109734117984772,
          "167": 0.167521670460701,
          "168": -0.2279047966003418,
          "169": -0.21813403069972992,
          "170": 0.015044370666146278,
          "171": -0.021750016137957573,
          "172": 0.22459621727466583,
          "173": 0.10424294322729111,
          "174": -0.10895055532455444,
          "175": 0.10773421823978424,
          "176": 0.22724051773548126,
          "177": -0.11267363280057907,
          "178": -0.129485622048378,
          "179": -0.20690429210662842,
          "180": -0.019744474440813065,
          "181": -0.024629050865769386,
          "182": 0.13602229952812195,
          "183": -0.13151313364505768,
          "184": -0.11325938254594803,
          "185": -0.13257010281085968,
          "186": -0.03542107716202736,
          "187": 0.02774857170879841,
          "188": 0.17526426911354065,
          "189": -0.08164741843938828,
          "190": -0.10163206607103348,
          "191": -0.1512000858783722,
          "192": -0.21711160242557526,
          "193": 0.0454125814139843,
          "194": -0.03661837428808212,
          "195": 0.09761965274810791
        }
      },
      "1": {
        "bias": -0.054920829832553864,
        "weights": {
          "0": -0.13749106228351593,
          "1": -0.07312869280576706,
          "2": -0.19092193245887756,
          "3": 0.20092828571796417,
          "4": -0.14987768232822418,
          "5": 0.06327920407056808,
          "6": -0.13266399502754211,
          "7": -0.12996947765350342,
          "8": -0.16218915581703186,
          "9": 0.10189061611890793,
          "10": 0.07136370241641998,
          "11": 0.1449269950389862,
          "12": 0.16587546467781067,
          "13": -0.00278066610917449,
          "14": 0.10149915516376495,
          "15": 0.07676295191049576,
          "16": -0.014155077748000622,
          "17": -0.08138061314821243,
          "18": 0.1801910251379013,
          "19": 0.06855624169111252,
          "20": 0.14194230735301971,
          "21": 0.14147880673408508,
          "22": -0.07535386085510254,
          "23": 0.0318971648812294,
          "24": -0.011869924142956734,
          "25": -0.15321533381938934,
          "26": -0.046278733760118484,
          "27": 0.13240094482898712,
          "28": 0.036664098501205444,
          "29": -0.15437477827072144,
          "30": 0.15545368194580078,
          "31": 0.15861018002033234,
          "32": 0.1989980936050415,
          "33": -0.056023597717285156,
          "34": -0.15251660346984863,
          "35": 0.08795396238565445,
          "36": -0.13136768341064453,
          "37": -0.24975788593292236,
          "38": -0.17196714878082275,
          "39": -0.021319596096873283,
          "40": 0.02059979923069477,
          "41": 0.029470236971974373,
          "42": 0.026270147413015366,
          "43": 0.1767246425151825,
          "44": 0.005837917327880859,
          "45": -0.12332712113857269,
          "46": 0.08404140919446945,
          "47": -0.15342511236667633,
          "48": -0.15549024939537048,
          "49": -0.009672706015408039,
          "50": -0.12762343883514404,
          "51": -0.06947433203458786,
          "52": 0.0013398552546277642,
          "53": -0.10229852795600891,
          "54": 0.09022673219442368,
          "55": -0.07378710061311722,
          "56": -0.05559109151363373,
          "57": 0.02708742767572403,
          "58": -0.03869659826159477,
          "59": -0.1493339091539383,
          "60": -0.05085628107190132,
          "61": -0.3277831971645355,
          "62": -0.09258145093917847,
          "63": 0.2572152614593506,
          "64": 0.1450575441122055,
          "65": -0.2829655706882477,
          "66": -0.19869442284107208,
          "67": -0.11917060613632202,
          "68": -0.0888785570859909,
          "69": 0.08032645285129547,
          "70": -0.11999654024839401,
          "71": 0.11507244408130646,
          "72": 0.18065539002418518,
          "73": 0.07668229937553406,
          "74": -0.14562244713306427,
          "75": -0.2888810634613037,
          "76": -0.2000148445367813,
          "77": 0.3334028720855713,
          "78": -0.20812402665615082,
          "79": -0.2527591586112976,
          "80": 0.05724521726369858,
          "81": -0.28265219926834106,
          "82": -0.016154494136571884,
          "83": 0.0012852528598159552,
          "84": -0.12893731892108917,
          "85": 0.009057299233973026,
          "86": 0.18508003652095795,
          "87": -0.06707749515771866,
          "88": 0.2556546926498413,
          "89": -0.011568871326744556,
          "90": 0.03077640011906624,
          "91": -0.36721858382225037,
          "92": 0.024360081180930138,
          "93": -0.050239428877830505,
          "94": -0.11875884234905243,
          "95": -0.0525740310549736,
          "96": 0.032197799533605576,
          "97": 0.1869652420282364,
          "98": 0.028092002496123314,
          "99": -0.18162454664707184,
          "100": 0.06698846817016602,
          "101": 0.17967471480369568,
          "102": 0.20006662607192993,
          "103": 0.0010211006738245487,
          "104": -0.21365518867969513,
          "105": -0.1525716781616211,
          "106": -0.05951583757996559,
          "107": -0.00955329928547144,
          "108": 0.0580630823969841,
          "109": 0.08765970170497894,
          "110": 0.12128740549087524,
          "111": -0.02305571176111698,
          "112": 0.12130814790725708,
          "113": -0.12036868929862976,
          "114": 0.14916649460792542,
          "115": 0.1031913235783577,
          "116": 0.1693243831396103,
          "117": -0.036876946687698364,
          "118": -0.3684011995792389,
          "119": -0.08636635541915894,
          "120": 0.21643084287643433,
          "121": 0.05326378718018532,
          "122": -0.0018162248888984323,
          "123": 0.1775652915239334,
          "124": 0.07278047502040863,
          "125": -0.142634779214859,
          "126": 0.10064546763896942,
          "127": 0.21589165925979614,
          "128": 0.02002568356692791,
          "129": -0.16410323977470398,
          "130": -0.048567723482847214,
          "131": -0.21054595708847046,
          "132": -0.39071574807167053,
          "133": 0.035940419882535934,
          "134": 0.015015874989330769,
          "135": 0.18652096390724182,
          "136": 0.27886995673179626,
          "137": 0.21929384768009186,
          "138": -0.15970484912395477,
          "139": -0.005832867696881294,
          "140": 0.06658004969358444,
          "141": 0.09793410450220108,
          "142": 0.09980297833681107,
          "143": -0.22636108100414276,
          "144": 0.26515084505081177,
          "145": -0.04672587662935257,
          "146": -0.3863775432109833,
          "147": -0.009287784807384014,
          "148": -0.08885353058576584,
          "149": 0.17204980552196503,
          "150": -0.05161189287900925,
          "151": 0.26601290702819824,
          "152": 0.17844520509243011,
          "153": -0.09630675613880157,
          "154": -0.07074614614248276,
          "155": 0.11513803154230118,
          "156": -0.014840448275208473,
          "157": -0.13728809356689453,
          "158": -0.18446367979049683,
          "159": -0.1298164576292038,
          "160": -0.15743902325630188,
          "161": 0.17290210723876953,
          "162": 0.08522593975067139,
          "163": -0.08304046094417572,
          "164": -0.0034744853619486094,
          "165": -0.025790611281991005,
          "166": -0.02468275837600231,
          "167": -0.14825811982154846,
          "168": 0.1131337434053421,
          "169": 0.02894165739417076,
          "170": -0.05215393006801605,
          "171": -0.13267791271209717,
          "172": -0.587820291519165,
          "173": -0.1990397572517395,
          "174": -0.12475387752056122,
          "175": -0.10325761884450912,
          "176": -0.23044385015964508,
          "177": -0.3197498023509979,
          "178": -0.03780050575733185,
          "179": 0.020533010363578796,
          "180": -0.1289246827363968,
          "181": -0.02562335506081581,
          "182": -0.07804557681083679,
          "183": -0.1663510948419571,
          "184": 0.11620752513408661,
          "185": 0.1643379032611847,
          "186": 0.05222306028008461,
          "187": 0.10822615772485733,
          "188": 0.12882332503795624,
          "189": -0.13835415244102478,
          "190": -0.2179221659898758,
          "191": 0.06236964091658592,
          "192": -0.16287830471992493,
          "193": -0.1626407355070114,
          "194": 0.1483929604291916,
          "195": -0.19813255965709686
        }
      },
      "2": {
        "bias": -0.18912376463413239,
        "weights": {
          "0": -0.14839138090610504,
          "1": -0.09235066175460815,
          "2": 0.11314266920089722,
          "3": 0.12096061557531357,
          "4": -0.1590227633714676,
          "5": 0.08263728767633438,
          "6": -0.0652640089392662,
          "7": 0.029826972633600235,
          "8": 0.07287529855966568,
          "9": -0.10524341464042664,
          "10": 0.20528215169906616,
          "11": 0.018666613847017288,
          "12": 0.10866981744766235,
          "13": -0.06587967276573181,
          "14": 0.16775359213352203,
          "15": -0.1542852520942688,
          "16": -0.0883922129869461,
          "17": -0.1833052635192871,
          "18": -0.10864201933145523,
          "19": -0.14460726082324982,
          "20": 0.12485650926828384,
          "21": -0.12387872487306595,
          "22": 0.06854282319545746,
          "23": -0.10940760374069214,
          "24": -0.10106039047241211,
          "25": -0.1033674031496048,
          "26": -0.023273998871445656,
          "27": -0.1501501500606537,
          "28": -0.07325570285320282,
          "29": -0.09992752224206924,
          "30": 0.14529180526733398,
          "31": 0.18417184054851532,
          "32": 0.20033395290374756,
          "33": 0.048658207058906555,
          "34": 0.08074209839105606,
          "35": -0.017103053629398346,
          "36": -0.03465595468878746,
          "37": -0.011550873517990112,
          "38": 0.05567255616188049,
          "39": -0.09007315337657928,
          "40": -0.1900663822889328,
          "41": -0.10129610449075699,
          "42": 0.05879725143313408,
          "43": 0.04397200047969818,
          "44": -0.05740686133503914,
          "45": -0.185524582862854,
          "46": -0.1878822147846222,
          "47": -0.1539521962404251,
          "48": -0.1535574197769165,
          "49": 0.13773910701274872,
          "50": 0.10592013597488403,
          "51": 0.15259481966495514,
          "52": -0.14133137464523315,
          "53": -0.017306135967373848,
          "54": 0.09381356835365295,
          "55": 0.07621495425701141,
          "56": 0.003699237946420908,
          "57": -0.1526639610528946,
          "58": 0.08212406188249588,
          "59": -0.08558150380849838,
          "60": 0.08342018723487854,
          "61": -0.16470283269882202,
          "62": 0.21011994779109955,
          "63": 0.07667183876037598,
          "64": -0.10429324209690094,
          "65": 0.17259110510349274,
          "66": 0.23420387506484985,
          "67": -0.06422296911478043,
          "68": -0.13110162317752838,
          "69": -0.007674267515540123,
          "70": -0.1422366350889206,
          "71": -0.09815964847803116,
          "72": -0.15828242897987366,
          "73": -0.14044193923473358,
          "74": -0.001806753920391202,
          "75": -0.11162492632865906,
          "76": 0.10885357111692429,
          "77": 0.19593191146850586,
          "78": -0.08577720820903778,
          "79": 0.10538443177938461,
          "80": -0.1330089271068573,
          "81": -0.06266078352928162,
          "82": 0.049211084842681885,
          "83": -0.13217714428901672,
          "84": 0.11535772681236267,
          "85": -0.07241828739643097,
          "86": 0.13974712789058685,
          "87": -0.22150827944278717,
          "88": 0.09436650574207306,
          "89": -0.014018310233950615,
          "90": -0.15743279457092285,
          "91": 0.007451527751982212,
          "92": 0.04738369584083557,
          "93": 0.11060391366481781,
          "94": 0.07822655886411667,
          "95": -0.1504693329334259,
          "96": 0.21680298447608948,
          "97": -0.06440602988004684,
          "98": 0.023113535717129707,
          "99": 0.21663255989551544,
          "100": 0.14913077652454376,
          "101": -0.13939273357391357,
          "102": 0.06914831697940826,
          "103": -0.16691051423549652,
          "104": -0.04719289392232895,
          "105": -0.13329124450683594,
          "106": -0.06479712575674057,
          "107": 0.12594664096832275,
          "108": -0.17321866750717163,
          "109": -0.1559104174375534,
          "110": 0.20779259502887726,
          "111": 0.08801939338445663,
          "112": -0.03901401534676552,
          "113": 0.18492010235786438,
          "114": -0.11168840527534485,
          "115": -0.13924287259578705,
          "116": 0.16212806105613708,
          "117": -0.1695856750011444,
          "118": 0.008817281574010849,
          "119": -0.17011979222297668,
          "120": 0.09986594319343567,
          "121": -0.03176656737923622,
          "122": -0.019237957894802094,
          "123": -0.1854514628648758,
          "124": -0.1179419457912445,
          "125": 0.07009897381067276,
          "126": -0.0071111260913312435,
          "127": 0.186815544962883,
          "128": -0.1616700142621994,
          "129": -0.25920912623405457,
          "130": -0.26825979351997375,
          "131": -0.019480302929878235,
          "132": 0.0082157664000988,
          "133": -0.03459808975458145,
          "134": -0.1342543661594391,
          "135": 0.198615163564682,
          "136": -0.18620924651622772,
          "137": -0.06866516917943954,
          "138": 0.08194620907306671,
          "139": 0.018505705520510674,
          "140": -0.058999765664339066,
          "141": 0.07277706265449524,
          "142": -0.11273083090782166,
          "143": 0.06611398607492447,
          "144": -0.23240193724632263,
          "145": 0.04410720244050026,
          "146": -0.14686782658100128,
          "147": -0.11619759351015091,
          "148": -0.07217489182949066,
          "149": 0.07747197896242142,
          "150": 0.030889684334397316,
          "151": -0.0508304126560688,
          "152": -0.1437920480966568,
          "153": 0.15262770652770996,
          "154": 0.15780086815357208,
          "155": -0.16188044846057892,
          "156": 0.05582273378968239,
          "157": 0.17849504947662354,
          "158": 0.0055943927727639675,
          "159": 0.035785011947155,
          "160": 0.06874937564134598,
          "161": -0.05573626607656479,
          "162": -0.09709541499614716,
          "163": -0.1395254284143448,
          "164": -0.01924068294465542,
          "165": 0.19367682933807373,
          "166": 0.1760990172624588,
          "167": -0.16503460705280304,
          "168": 0.15974071621894836,
          "169": -0.1070920005440712,
          "170": 0.07962255924940109,
          "171": -0.08208101242780685,
          "172": -0.14002427458763123,
          "173": -0.002893290249630809,
          "174": -0.06738072633743286,
          "175": -0.07970228046178818,
          "176": 0.06744641065597534,
          "177": -0.09024835377931595,
          "178": -0.1837688684463501,
          "179": 0.17443810403347015,
          "180": 0.20235221087932587,
          "181": -0.04016649350523949,
          "182": 0.1098066195845604,
          "183": 0.001754913479089737,
          "184": 0.10031471401453018,
          "185": 0.1681562066078186,
          "186": 0.015880940482020378,
          "187": -0.09132204949855804,
          "188": -0.14891305565834045,
          "189": -0.07421983778476715,
          "190": 0.11443497985601425,
          "191": 0.1305941790342331,
          "192": -0.15719176828861237,
          "193": 0.16541923582553864,
          "194": 0.002412782981991768,
          "195": -0.18030060827732086
        }
      },
      "3": {
        "bias": -0.13143713772296906,
        "weights": {
          "0": -0.06976597756147385,
          "1": -0.053907886147499084,
          "2": -0.18377302587032318,
          "3": 0.1483186036348343,
          "4": -0.11263294517993927,
          "5": 0.06688866019248962,
          "6": 0.15532907843589783,
          "7": -0.010987626388669014,
          "8": -0.03718360885977745,
          "9": 0.19802987575531006,
          "10": 0.07964936643838882,
          "11": 0.10342329740524292,
          "12": -0.12271813303232193,
          "13": 0.14987091720104218,
          "14": 0.0859779492020607,
          "15": -0.08921954780817032,
          "16": -0.06600075215101242,
          "17": -0.012119773775339127,
          "18": -0.0031263045966625214,
          "19": -0.05840510502457619,
          "20": 0.03969905152916908,
          "21": 0.03251318633556366,
          "22": 0.1708126962184906,
          "23": 0.03280723839998245,
          "24": 0.011003417894244194,
          "25": 0.12327923625707626,
          "26": -0.11920982599258423,
          "27": 0.018996920436620712,
          "28": 0.12023783475160599,
          "29": 0.031498685479164124,
          "30": -0.17934317886829376,
          "31": -0.0781077966094017,
          "32": 0.026787269860506058,
          "33": 0.11164752393960953,
          "34": -0.03295101597905159,
          "35": 0.29068470001220703,
          "36": 0.2332615852355957,
          "37": 0.11355403065681458,
          "38": 0.011169440113008022,
          "39": 0.07221165299415588,
          "40": -0.06001884490251541,
          "41": 0.09323718398809433,
          "42": -0.0011553787626326084,
          "43": 0.019446229562163353,
          "44": -0.010460484772920609,
          "45": 0.0823751762509346,
          "46": -0.16502200067043304,
          "47": -0.050476931035518646,
          "48": -0.20738637447357178,
          "49": -0.2490728497505188,
          "50": -0.09125541895627975,
          "51": 0.07957665622234344,
          "52": 0.2592759132385254,
          "53": 0.01727021299302578,
          "54": -0.21719421446323395,
          "55": 0.14743727445602417,
          "56": -0.011474651284515858,
          "57": -0.16259212791919708,
          "58": 0.16122204065322876,
          "59": -0.08291573077440262,
          "60": -0.14373452961444855,
          "61": -0.08327977359294891,
          "62": 0.2495056539773941,
          "63": 0.19853803515434265,
          "64": -0.05288970097899437,
          "65": 0.10511147975921631,
          "66": 0.261669784784317,
          "67": 0.022776294499635696,
          "68": 0.043888915330171585,
          "69": 0.005019670352339745,
          "70": -0.02659318968653679,
          "71": 0.07422150671482086,
          "72": 0.13661827147006989,
          "73": -0.22991350293159485,
          "74": -0.2492303103208542,
          "75": -0.24511131644248962,
          "76": 0.05541505292057991,
          "77": 0.2121896892786026,
          "78": -0.1367892622947693,
          "79": 0.14695890247821808,
          "80": -0.10430105775594711,
          "81": -0.1500031054019928,
          "82": 0.0029845291282981634,
          "83": -0.003341174917295575,
          "84": 0.030675698071718216,
          "85": -0.1472749561071396,
          "86": 0.18558648228645325,
          "87": -0.31545016169548035,
          "88": -0.002479566028341651,
          "89": -0.1656527817249298,
          "90": -0.059369951486587524,
          "91": -0.05463939905166626,
          "92": -0.21050135791301727,
          "93": 0.11367834359407425,
          "94": 0.06713860481977463,
          "95": -0.051434289664030075,
          "96": -0.02611960843205452,
          "97": 0.06447383016347885,
          "98": -0.13304094970226288,
          "99": -0.09772732853889465,
          "100": -0.04746371507644653,
          "101": -0.021050412207841873,
          "102": 0.10064924508333206,
          "103": -0.3804776668548584,
          "104": -0.3148467242717743,
          "105": -0.23557011783123016,
          "106": -0.2393718659877777,
          "107": 0.133636474609375,
          "108": -0.056572724133729935,
          "109": 0.008651360869407654,
          "110": 0.23925669491291046,
          "111": -0.16314944624900818,
          "112": 0.06985637545585632,
          "113": -0.03059833124279976,
          "114": 0.0878823772072792,
          "115": 0.09814386069774628,
          "116": -0.04115042835474014,
          "117": -0.5075597763061523,
          "118": -0.1767265945672989,
          "119": -0.025345079600811005,
          "120": -0.24420687556266785,
          "121": -0.13594214618206024,
          "122": 0.14096665382385254,
          "123": 0.07224075496196747,
          "124": -0.15808111429214478,
          "125": 0.033049799501895905,
          "126": -0.14212395250797272,
          "127": -0.12989991903305054,
          "128": 0.17349974811077118,
          "129": -0.04329751804471016,
          "130": -0.24788302183151245,
          "131": 0.017828701063990593,
          "132": 0.06257706880569458,
          "133": -0.06074463948607445,
          "134": -0.18795529007911682,
          "135": -0.11454176902770996,
          "136": -0.272184818983078,
          "137": 0.12398510426282883,
          "138": 0.1447780430316925,
          "139": -0.08226802945137024,
          "140": -0.12542536854743958,
          "141": -0.06620693951845169,
          "142": 0.2162766009569168,
          "143": 0.03428944572806358,
          "144": 0.07803933322429657,
          "145": -0.08604501187801361,
          "146": -0.03618653863668442,
          "147": 0.0956973135471344,
          "148": 0.1091303750872612,
          "149": -0.38640955090522766,
          "150": -0.026353798806667328,
          "151": 0.03999284654855728,
          "152": 0.10422173142433167,
          "153": -0.20985770225524902,
          "154": 0.10644370317459106,
          "155": 0.12092182785272598,
          "156": 0.260958731174469,
          "157": 0.03841905668377876,
          "158": 0.016380485147237778,
          "159": 0.1454721838235855,
          "160": -0.1609899401664734,
          "161": -0.0765957310795784,
          "162": -0.17225384712219238,
          "163": -0.40113288164138794,
          "164": 0.17528294026851654,
          "165": 0.14235076308250427,
          "166": 0.03925182670354843,
          "167": 0.10493319481611252,
          "168": 0.16570070385932922,
          "169": -0.17612527310848236,
          "170": -0.02101392112672329,
          "171": -0.29137593507766724,
          "172": -0.1852763593196869,
          "173": 0.06995157152414322,
          "174": -0.1041175052523613,
          "175": -0.06978306919336319,
          "176": -0.512833833694458,
          "177": -0.3175395131111145,
          "178": -0.04957640543580055,
          "179": 0.031201699748635292,
          "180": -0.08987429738044739,
          "181": -0.1898859739303589,
          "182": -0.048080820590257645,
          "183": 0.1443866640329361,
          "184": -0.07970304787158966,
          "185": -0.007512184325605631,
          "186": 0.03708925098180771,
          "187": 0.02599766105413437,
          "188": 0.08266102522611618,
          "189": -0.1235758364200592,
          "190": -0.13444600999355316,
          "191": -0.03236421197652817,
          "192": -0.055270396173000336,
          "193": -0.06287972629070282,
          "194": -0.038897886872291565,
          "195": -0.04767657816410065
        }
      },
      "4": {
        "bias": -0.0336630754172802,
        "weights": {
          "0": 0.13225170969963074,
          "1": -0.12367556244134903,
          "2": -0.10792674869298935,
          "3": -0.18383659422397614,
          "4": -0.22820724546909332,
          "5": -0.004893441218882799,
          "6": 0.06960859894752502,
          "7": -0.025286486372351646,
          "8": -0.20552410185337067,
          "9": -0.12361088395118713,
          "10": -0.06723663210868835,
          "11": 0.1241314634680748,
          "12": -0.1804460734128952,
          "13": 0.0833558663725853,
          "14": 0.059919361025094986,
          "15": -0.024943839758634567,
          "16": -0.04086389020085335,
          "17": -0.19540897011756897,
          "18": 0.12961982190608978,
          "19": 0.14391516149044037,
          "20": 0.06987690180540085,
          "21": -0.01831468753516674,
          "22": 0.07493061572313309,
          "23": 0.12333382666110992,
          "24": 0.05682915076613426,
          "25": -0.13989506661891937,
          "26": -0.053040944039821625,
          "27": -0.01785227283835411,
          "28": -0.1766858994960785,
          "29": 0.0792301744222641,
          "30": -0.1193729117512703,
          "31": -0.1769132763147354,
          "32": 0.19076451659202576,
          "33": -0.07114323228597641,
          "34": -0.12707743048667908,
          "35": -0.22701238095760345,
          "36": -0.11946931481361389,
          "37": 0.11941216140985489,
          "38": -0.2163754254579544,
          "39": 0.06462129205465317,
          "40": -0.039166755974292755,
          "41": -0.24990980327129364,
          "42": 0.007922528311610222,
          "43": 0.15266716480255127,
          "44": -0.05639531835913658,
          "45": -0.2636532783508301,
          "46": 0.08224520832300186,
          "47": -0.1486598253250122,
          "48": -0.04894520342350006,
          "49": -0.32098719477653503,
          "50": 0.00521094212308526,
          "51": -0.10985131561756134,
          "52": -0.010226446203887463,
          "53": -0.12784633040428162,
          "54": -0.021759485825896263,
          "55": -0.25751012563705444,
          "56": -0.2386549860239029,
          "57": -0.032750777900218964,
          "58": -0.06966271996498108,
          "59": 0.046622104942798615,
          "60": 0.11742067337036133,
          "61": 0.1325569450855255,
          "62": -0.05907044932246208,
          "63": 0.08506794273853302,
          "64": -0.04694145545363426,
          "65": -0.04098299890756607,
          "66": 0.038871414959430695,
          "67": -0.10796535015106201,
          "68": 0.05742362514138222,
          "69": -0.03080327808856964,
          "70": -0.19313274323940277,
          "71": -0.03315025195479393,
          "72": 0.12073570489883423,
          "73": -0.16332106292247772,
          "74": 0.016914742067456245,
          "75": -0.04108531028032303,
          "76": 0.0846436470746994,
          "77": 0.29613709449768066,
          "78": 0.06757824122905731,
          "79": -0.18538275361061096,
          "80": -0.21065273880958557,
          "81": -0.1775655895471573,
          "82": 0.0612187460064888,
          "83": -0.15396004915237427,
          "84": 0.05347631499171257,
          "85": -0.03132838383316994,
          "86": 0.04064272344112396,
          "87": -0.05722862109541893,
          "88": 0.26091939210891724,
          "89": 0.29912906885147095,
          "90": -0.08835479617118835,
          "91": 0.2699592411518097,
          "92": -0.07480520009994507,
          "93": 0.13999632000923157,
          "94": -0.0011776309693232179,
          "95": -0.09044363349676132,
          "96": 0.16571107506752014,
          "97": -0.12386971712112427,
          "98": 0.11486610025167465,
          "99": -0.14702193439006805,
          "100": -0.08444710075855255,
          "101": 0.2297704666852951,
          "102": 0.2171265035867691,
          "103": 0.0025031911209225655,
          "104": 0.1257670670747757,
          "105": 0.17019444704055786,
          "106": -0.2348099946975708,
          "107": -0.15125086903572083,
          "108": 0.19552357494831085,
          "109": -0.06206618621945381,
          "110": 0.10524480044841766,
          "111": 0.0826372504234314,
          "112": -0.028687145560979843,
          "113": -0.05722064524888992,
          "114": 0.08602127432823181,
          "115": 0.16370077431201935,
          "116": 0.22051654756069183,
          "117": 0.1269456297159195,
          "118": 0.09955853968858719,
          "119": -0.11331506073474884,
          "120": -0.15580584108829498,
          "121": 0.006950379349291325,
          "122": 0.23156733810901642,
          "123": -0.06675129383802414,
          "124": 0.07852111756801605,
          "125": -0.04222448915243149,
          "126": 0.12819592654705048,
          "127": 0.09033244848251343,
          "128": 0.056204620748758316,
          "129": 0.04270851984620094,
          "130": 0.21646904945373535,
          "131": 0.18219579756259918,
          "132": 0.020669614896178246,
          "133": -0.12040282785892487,
          "134": -0.2011364996433258,
          "135": 0.26239174604415894,
          "136": 0.23903053998947144,
          "137": -0.1733057200908661,
          "138": -0.020924387499690056,
          "139": 0.088062584400177,
          "140": 0.1282975673675537,
          "141": 0.1400788575410843,
          "142": -0.04927127808332443,
          "143": 0.04538452625274658,
          "144": 0.2703096270561218,
          "145": 0.20746825635433197,
          "146": -0.2722688913345337,
          "147": -0.13257718086242676,
          "148": 0.1623155176639557,
          "149": 0.2167399525642395,
          "150": 0.127310648560524,
          "151": -0.04613379016518593,
          "152": -0.13342700898647308,
          "153": 0.10391177982091904,
          "154": 0.12527550756931305,
          "155": 0.015656419098377228,
          "156": 0.13514599204063416,
          "157": -0.06483464688062668,
          "158": -0.10500466823577881,
          "159": -0.013711276464164257,
          "160": 0.22784748673439026,
          "161": 0.25865113735198975,
          "162": 0.10010096430778503,
          "163": 0.0554504320025444,
          "164": -0.06991074234247208,
          "165": -0.05673865228891373,
          "166": 0.014256817288696766,
          "167": -0.14533759653568268,
          "168": -0.032370489090681076,
          "169": 0.1236928254365921,
          "170": -0.0870523750782013,
          "171": -0.03263207897543907,
          "172": -0.39457231760025024,
          "173": 0.009481716901063919,
          "174": -0.2094755321741104,
          "175": -0.09614498913288116,
          "176": -0.1744798868894577,
          "177": -0.21116012334823608,
          "178": 0.0518096499145031,
          "179": -0.06483220309019089,
          "180": -0.0038438630290329456,
          "181": -0.14658406376838684,
          "182": -0.11638227850198746,
          "183": -0.013020742684602737,
          "184": -0.07558043301105499,
          "185": -0.16081763803958893,
          "186": 0.032697975635528564,
          "187": -0.046424150466918945,
          "188": -0.2292257398366928,
          "189": -0.08684685826301575,
          "190": -0.1910611093044281,
          "191": -0.11434460431337357,
          "192": 0.037117037922143936,
          "193": -0.16590887308120728,
          "194": 0.06539929658174515,
          "195": 0.02900443784892559
        }
      },
      "5": {
        "bias": 0.19220678508281708,
        "weights": {
          "0": 0.20210519433021545,
          "1": 0.15929192304611206,
          "2": -0.030602172017097473,
          "3": 0.14542071521282196,
          "4": 0.025399787351489067,
          "5": -0.1591816246509552,
          "6": -0.14124220609664917,
          "7": -0.08100778609514236,
          "8": 0.07040122896432877,
          "9": 0.09393111616373062,
          "10": 0.16142167150974274,
          "11": -0.15995769202709198,
          "12": -0.1425488293170929,
          "13": -0.1689799726009369,
          "14": -0.04021457955241203,
          "15": -0.06910858303308487,
          "16": -0.15193064510822296,
          "17": 0.12605483829975128,
          "18": -0.030339067801833153,
          "19": -0.16967570781707764,
          "20": -0.048850223422050476,
          "21": 0.16536717116832733,
          "22": -0.0034059868194162846,
          "23": -0.11455792933702469,
          "24": -0.10905659943819046,
          "25": 0.09737464040517807,
          "26": -0.14903707802295685,
          "27": -0.01157432235777378,
          "28": 0.12289616465568542,
          "29": -0.19261091947555542,
          "30": 0.08455865830183029,
          "31": 0.001311073312535882,
          "32": -0.14776092767715454,
          "33": 0.142571359872818,
          "34": -0.1160009428858757,
          "35": -0.210248202085495,
          "36": -0.0406159982085228,
          "37": -0.21739467978477478,
          "38": -0.13414092361927032,
          "39": 0.05975717678666115,
          "40": -0.24203938245773315,
          "41": 0.05210277438163757,
          "42": 0.17247362434864044,
          "43": 0.11831784248352051,
          "44": -0.09606518596410751,
          "45": -0.06294529139995575,
          "46": 0.1400739699602127,
          "47": -0.16926266252994537,
          "48": -0.2671356201171875,
          "49": -0.1507786363363266,
          "50": -0.11491642147302628,
          "51": 0.10018552094697952,
          "52": 0.06197495013475418,
          "53": -0.18787641823291779,
          "54": 0.045300014317035675,
          "55": -0.09357106685638428,
          "56": -0.11860071122646332,
          "57": -0.11844447255134583,
          "58": -0.08728169649839401,
          "59": 0.12227995693683624,
          "60": 0.06074821203947067,
          "61": -0.16261927783489227,
          "62": -0.15979553759098053,
          "63": 0.0015538035659119487,
          "64": -0.15452386438846588,
          "65": -0.027582187205553055,
          "66": -0.067130908370018,
          "67": 0.04977966099977493,
          "68": -0.08510091155767441,
          "69": -0.1722828894853592,
          "70": -0.09743227809667587,
          "71": -0.06074898689985275,
          "72": -0.0347762294113636,
          "73": -0.059041496366262436,
          "74": -0.12184489518404007,
          "75": 0.15765821933746338,
          "76": 0.12010478973388672,
          "77": -0.06352654099464417,
          "78": -0.2671044170856476,
          "79": -0.14055407047271729,
          "80": 0.15939845144748688,
          "81": -0.11338112503290176,
          "82": -0.0049057905562222,
          "83": -0.06075846776366234,
          "84": -0.07056973874568939,
          "85": -0.18144942820072174,
          "86": 0.011468474753201008,
          "87": -0.15005874633789062,
          "88": 0.061889875680208206,
          "89": -0.10428663343191147,
          "90": -0.16439573466777802,
          "91": 0.010033653117716312,
          "92": 0.0006091242539696395,
          "93": 0.12551572918891907,
          "94": 0.11171934753656387,
          "95": -0.08131958544254303,
          "96": 0.2326277792453766,
          "97": -0.09261409938335419,
          "98": -0.04097748175263405,
          "99": -0.01975090056657791,
          "100": 0.24163281917572021,
          "101": 0.14794744551181793,
          "102": 0.09102262556552887,
          "103": -0.15327595174312592,
          "104": -0.15821759402751923,
          "105": 0.05635533109307289,
          "106": -0.10684482753276825,
          "107": 0.13003219664096832,
          "108": 0.01301548257470131,
          "109": -0.025943396613001823,
          "110": 0.28003132343292236,
          "111": 0.0007901723147369921,
          "112": -0.04030204564332962,
          "113": 0.20466293394565582,
          "114": -0.061792902648448944,
          "115": -0.1696246862411499,
          "116": -0.17218723893165588,
          "117": 0.037456631660461426,
          "118": -0.08668728917837143,
          "119": 0.04478847235441208,
          "120": -0.11089421808719635,
          "121": 0.09108702093362808,
          "122": -0.0979878380894661,
          "123": -0.1296434849500656,
          "124": -0.12017958611249924,
          "125": -0.07979858666658401,
          "126": 0.14520269632339478,
          "127": -0.17656461894512177,
          "128": 0.14695189893245697,
          "129": -0.07009545713663101,
          "130": -0.09439239650964737,
          "131": 0.04855566844344139,
          "132": -0.2773078680038452,
          "133": 0.18277819454669952,
          "134": 0.14156010746955872,
          "135": 0.2288302332162857,
          "136": 0.16669952869415283,
          "137": 0.185329869389534,
          "138": -0.0038957770448178053,
          "139": -0.02962164208292961,
          "140": 0.14156419038772583,
          "141": -0.00030892970971763134,
          "142": 0.22218886017799377,
          "143": -0.02141600288450718,
          "144": 0.14405810832977295,
          "145": -0.016899842768907547,
          "146": -0.07053103297948837,
          "147": 0.16856233775615692,
          "148": 0.044980645179748535,
          "149": -0.13531595468521118,
          "150": 0.19809801876544952,
          "151": 0.17165961861610413,
          "152": 0.009119948372244835,
          "153": 0.019281508401036263,
          "154": -0.035407792776823044,
          "155": -0.03005307912826538,
          "156": 0.225704163312912,
          "157": 0.0727614164352417,
          "158": -0.23135346174240112,
          "159": 0.017137080430984497,
          "160": 0.15274900197982788,
          "161": 0.3151700794696808,
          "162": 0.17926929891109467,
          "163": -0.05028744414448738,
          "164": 0.04966581612825394,
          "165": 0.19318129122257233,
          "166": -0.05962903052568436,
          "167": -0.075006403028965,
          "168": -0.11777959764003754,
          "169": -0.05424987152218819,
          "170": 0.10712624341249466,
          "171": -0.28474968671798706,
          "172": -0.27856072783470154,
          "173": 0.05788132920861244,
          "174": 0.02784685604274273,
          "175": -0.03444412723183632,
          "176": -0.2707779109477997,
          "177": -0.17496341466903687,
          "178": -0.16855931282043457,
          "179": 0.034179605543613434,
          "180": -0.03175549581646919,
          "181": -0.05040499195456505,
          "182": -0.13104143738746643,
          "183": 0.1228412613272667,
          "184": 0.029727714136242867,
          "185": -0.09788510203361511,
          "186": 0.1513066589832306,
          "187": 0.06716671586036682,
          "188": -0.015759361907839775,
          "189": 0.08354167640209198,
          "190": -0.23474664986133575,
          "191": -0.12387264519929886,
          "192": 0.0634768009185791,
          "193": 0.20604108273983002,
          "194": -0.13390380144119263,
          "195": -0.08461281657218933
        }
      },
      "6": {
        "bias": -0.11580488830804825,
        "weights": {
          "0": 0.08337370306253433,
          "1": -0.196363627910614,
          "2": -0.04051094129681587,
          "3": -0.021170271560549736,
          "4": -0.05654722452163696,
          "5": -0.1490907371044159,
          "6": -0.09468841552734375,
          "7": 0.0510081946849823,
          "8": -0.10415604710578918,
          "9": -0.08802232146263123,
          "10": -0.12539933621883392,
          "11": 0.05561918392777443,
          "12": -0.09750502556562424,
          "13": -0.21282534301280975,
          "14": -0.10313623398542404,
          "15": 0.1597920060157776,
          "16": -0.18614235520362854,
          "17": 0.16535824537277222,
          "18": 0.0859532356262207,
          "19": 0.213438019156456,
          "20": 0.09967511147260666,
          "21": 0.03125374764204025,
          "22": -0.059679049998521805,
          "23": -0.06840137392282486,
          "24": -0.16322006285190582,
          "25": -0.14327752590179443,
          "26": -0.09619375318288803,
          "27": 0.010854607447981834,
          "28": -0.012513632886111736,
          "29": -0.020965484902262688,
          "30": -0.21105805039405823,
          "31": 0.10934554040431976,
          "32": -0.17111407220363617,
          "33": 0.10322451591491699,
          "34": -0.16562418639659882,
          "35": 0.026250073686242104,
          "36": -0.07943382114171982,
          "37": -0.13368438184261322,
          "38": 0.048011329025030136,
          "39": 0.07573918998241425,
          "40": 0.05628953129053116,
          "41": 0.006455836817622185,
          "42": 0.005961749702692032,
          "43": 0.01848161779344082,
          "44": 0.0850183516740799,
          "45": 0.12697748839855194,
          "46": 0.20126546919345856,
          "47": 0.33920830488204956,
          "48": 0.20265674591064453,
          "49": 0.34519389271736145,
          "50": 0.1247960776090622,
          "51": -0.2040940225124359,
          "52": -0.3496396839618683,
          "53": 0.08183146268129349,
          "54": 0.15794599056243896,
          "55": 0.0833924263715744,
          "56": -0.08144360780715942,
          "57": -0.10424850136041641,
          "58": 0.037314385175704956,
          "59": 0.06850630044937134,
          "60": 0.16462507843971252,
          "61": 0.3343139588832855,
          "62": 0.2850264012813568,
          "63": -0.14731557667255402,
          "64": 0.08130964636802673,
          "65": -0.022265588864684105,
          "66": -0.3449966311454773,
          "67": -0.004917537327855825,
          "68": -0.19853685796260834,
          "69": -0.1257425993680954,
          "70": -0.13408389687538147,
          "71": -0.07953771203756332,
          "72": 0.10781729966402054,
          "73": -0.13096189498901367,
          "74": 0.1472826898097992,
          "75": 0.18913239240646362,
          "76": -0.018172582611441612,
          "77": -0.04000841826200485,
          "78": 0.22295908629894257,
          "79": -0.2099114954471588,
          "80": -0.412980318069458,
          "81": 0.03390469774603844,
          "82": 0.10719814896583557,
          "83": -0.22786357998847961,
          "84": -0.014453939162194729,
          "85": -0.051701635122299194,
          "86": -0.1649964302778244,
          "87": -0.05751213803887367,
          "88": 0.010724667459726334,
          "89": -0.27930307388305664,
          "90": -0.15264753997325897,
          "91": -0.1928689032793045,
          "92": 0.15869136154651642,
          "93": 0.0451548732817173,
          "94": -0.176177516579628,
          "95": 0.09362906217575073,
          "96": -0.03984387591481209,
          "97": -0.23429010808467865,
          "98": -0.06494739651679993,
          "99": -0.1120789423584938,
          "100": -0.11699008196592331,
          "101": -0.04099244251847267,
          "102": -0.21644221246242523,
          "103": 0.08436489850282669,
          "104": -0.06859298050403595,
          "105": -0.09261518716812134,
          "106": 0.1328406184911728,
          "107": 0.154542475938797,
          "108": 0.07283181697130203,
          "109": -0.05648144707083702,
          "110": -0.13894453644752502,
          "111": -0.13108943402767181,
          "112": -0.08702702075242996,
          "113": -0.3157654106616974,
          "114": 0.06283826380968094,
          "115": -0.2775256633758545,
          "116": -0.10866476595401764,
          "117": 0.011726741679012775,
          "118": 0.15651936829090118,
          "119": -0.04014013707637787,
          "120": 0.15102332830429077,
          "121": 0.01140605192631483,
          "122": 0.22719325125217438,
          "123": -0.11346380412578583,
          "124": 0.06242300570011139,
          "125": -0.12035536766052246,
          "126": 0.05587485060095787,
          "127": -0.02686849981546402,
          "128": 0.03753688931465149,
          "129": -0.16467691957950592,
          "130": 0.021072041243314743,
          "131": 0.16383515298366547,
          "132": 0.2467653900384903,
          "133": -0.25074806809425354,
          "134": 0.10868394374847412,
          "135": -0.1116473376750946,
          "136": -0.060172561556100845,
          "137": 0.030439263209700584,
          "138": -0.09438306093215942,
          "139": -0.10327451676130295,
          "140": -0.19335073232650757,
          "141": -0.19425973296165466,
          "142": -0.11297205090522766,
          "143": -0.15477874875068665,
          "144": 0.05581164360046387,
          "145": 0.19662536680698395,
          "146": 0.32024699449539185,
          "147": -0.07426450401544571,
          "148": -0.18577823042869568,
          "149": 0.2676245868206024,
          "150": 0.24376247823238373,
          "151": -0.28790155053138733,
          "152": -0.12322662770748138,
          "153": 0.15253500640392303,
          "154": -0.09973149746656418,
          "155": 0.039883073419332504,
          "156": 0.03648370876908302,
          "157": 0.06546984612941742,
          "158": -0.04262767732143402,
          "159": 0.14413787424564362,
          "160": -0.10518002510070801,
          "161": 0.07043043524026871,
          "162": 0.17716364562511444,
          "163": 0.05039900168776512,
          "164": -0.1415601521730423,
          "165": -0.21148568391799927,
          "166": 0.04799047112464905,
          "167": -0.09838654845952988,
          "168": 0.05060255527496338,
          "169": 0.12134379148483276,
          "170": -0.1369694173336029,
          "171": 0.09921152889728546,
          "172": 0.34469473361968994,
          "173": 0.254387229681015,
          "174": 0.13245804607868195,
          "175": 0.34853634238243103,
          "176": 0.06951145827770233,
          "177": 0.32664820551872253,
          "178": 0.18679815530776978,
          "179": 0.15057700872421265,
          "180": -0.11798403412103653,
          "181": -0.07466872036457062,
          "182": -0.20038242638111115,
          "183": 0.0843142718076706,
          "184": -0.18658855557441711,
          "185": 0.06649678945541382,
          "186": -0.1765277236700058,
          "187": 0.17415787279605865,
          "188": 0.243223175406456,
          "189": -0.020664647221565247,
          "190": 0.12005393207073212,
          "191": -0.04708390310406685,
          "192": 0.10316573828458786,
          "193": 0.12977495789527893,
          "194": 0.04147929325699806,
          "195": -0.11089447885751724
        }
      },
      "7": {
        "bias": 0.16273976862430573,
        "weights": {
          "0": -0.21551156044006348,
          "1": -0.12787427008152008,
          "2": -0.1743766814470291,
          "3": 0.11645226925611496,
          "4": 0.09240753948688507,
          "5": 0.13745148479938507,
          "6": -0.026029596105217934,
          "7": -0.03396078199148178,
          "8": -0.11776517331600189,
          "9": -0.13965541124343872,
          "10": -0.1292525827884674,
          "11": -0.07813127338886261,
          "12": -0.06468546390533447,
          "13": -0.1700609177350998,
          "14": 0.04512913525104523,
          "15": -0.002885142108425498,
          "16": -0.03782407566905022,
          "17": -0.08781400322914124,
          "18": 0.15604141354560852,
          "19": 0.03071221522986889,
          "20": -0.10679170489311218,
          "21": 0.0021103692706674337,
          "22": 0.0933864638209343,
          "23": 0.0264817513525486,
          "24": -0.1678197681903839,
          "25": -0.1682305634021759,
          "26": -0.1812121570110321,
          "27": -0.1987897753715515,
          "28": -0.02503865398466587,
          "29": -0.006040938664227724,
          "30": -0.006184083875268698,
          "31": 0.145681694149971,
          "32": 0.02197745442390442,
          "33": 0.1874944269657135,
          "34": 0.11397507041692734,
          "35": -0.22983133792877197,
          "36": -0.05696965754032135,
          "37": 0.03786132112145424,
          "38": -0.028214184567332268,
          "39": -0.11645738780498505,
          "40": 0.1528434157371521,
          "41": -0.10058756917715073,
          "42": -0.06489365547895432,
          "43": 0.12800537049770355,
          "44": 0.053134530782699585,
          "45": 0.23171992599964142,
          "46": 0.06878751516342163,
          "47": 0.022809656336903572,
          "48": -0.1681661307811737,
          "49": 0.03813200443983078,
          "50": 0.10642308741807938,
          "51": -0.16025592386722565,
          "52": 0.0281366016715765,
          "53": -0.1585722714662552,
          "54": 0.09603147208690643,
          "55": 0.04248809814453125,
          "56": -0.1639169305562973,
          "57": 0.09896604716777802,
          "58": -0.1249132826924324,
          "59": -0.14469103515148163,
          "60": 0.10065209865570068,
          "61": -0.0993342325091362,
          "62": 0.18095874786376953,
          "63": -0.01126061286777258,
          "64": -0.019426101818680763,
          "65": 0.015001945197582245,
          "66": -0.19386495649814606,
          "67": -0.2062682956457138,
          "68": 0.13312187790870667,
          "69": -0.1370827853679657,
          "70": -0.13472987711429596,
          "71": -0.07527250051498413,
          "72": 0.0989784449338913,
          "73": 0.106196328997612,
          "74": -0.0751083567738533,
          "75": 0.21264997124671936,
          "76": -0.00045278831385076046,
          "77": -0.22423866391181946,
          "78": 0.21862655878067017,
          "79": -0.29396292567253113,
          "80": -0.13952764868736267,
          "81": 0.10670877248048782,
          "82": -0.12596848607063293,
          "83": -0.10726363211870193,
          "84": 0.11491658538579941,
          "85": 0.08526415377855301,
          "86": 0.013790004886686802,
          "87": 0.09104899317026138,
          "88": -0.14781740307807922,
          "89": -0.1308794915676117,
          "90": 0.1579074114561081,
          "91": 0.12291417270898819,
          "92": 0.1692492514848709,
          "93": -0.030029967427253723,
          "94": -0.29767921566963196,
          "95": 0.09660693258047104,
          "96": -0.27595287561416626,
          "97": -0.07484989613294601,
          "98": 0.026716699823737144,
          "99": -0.10217257589101791,
          "100": -0.0198303684592247,
          "101": -0.2658398747444153,
          "102": -0.4021344780921936,
          "103": -0.08904531598091125,
          "104": -0.06445308774709702,
          "105": 0.035341549664735794,
          "106": 0.1749144345521927,
          "107": -0.02121766097843647,
          "108": -0.2674631178379059,
          "109": 0.08329875022172928,
          "110": -0.10918596386909485,
          "111": -0.15322887897491455,
          "112": 0.06954340636730194,
          "113": 0.10606690496206284,
          "114": 0.013787984848022461,
          "115": -0.28530335426330566,
          "116": -0.2956739068031311,
          "117": 0.10698255151510239,
          "118": 0.14307263493537903,
          "119": 0.23264944553375244,
          "120": 0.27515754103660583,
          "121": 0.18986302614212036,
          "122": -0.12802408635616302,
          "123": 0.05885382741689682,
          "124": -0.10043705999851227,
          "125": 0.09809691458940506,
          "126": 0.11407694220542908,
          "127": 0.15833662450313568,
          "128": 0.0823681578040123,
          "129": 0.10018284618854523,
          "130": 0.019031904637813568,
          "131": 0.05864982306957245,
          "132": -0.03102758899331093,
          "133": -0.028730103746056557,
          "134": -0.11237248033285141,
          "135": 0.18944090604782104,
          "136": 0.1277574747800827,
          "137": 0.1662590503692627,
          "138": -0.08108614385128021,
          "139": -0.0369059294462204,
          "140": 0.06509865075349808,
          "141": -0.17055998742580414,
          "142": -0.20645681023597717,
          "143": -0.006824231706559658,
          "144": -0.08703463524580002,
          "145": 0.06890591233968735,
          "146": 0.32449808716773987,
          "147": 0.11855730414390564,
          "148": -0.015220057219266891,
          "149": 0.26194068789482117,
          "150": -0.18279226124286652,
          "151": -0.004850611090660095,
          "152": -0.09907687455415726,
          "153": -0.16820384562015533,
          "154": 0.09331037849187851,
          "155": -0.16859924793243408,
          "156": -0.2407204955816269,
          "157": 0.0767923891544342,
          "158": -0.01320156641304493,
          "159": 0.030399741604924202,
          "160": 0.029610032215714455,
          "161": -0.015125488862395287,
          "162": -0.07887943834066391,
          "163": -0.015478488989174366,
          "164": 0.11637840420007706,
          "165": 0.09449777007102966,
          "166": 0.12367207556962967,
          "167": -0.14152701199054718,
          "168": 0.11421127617359161,
          "169": -0.11854959279298782,
          "170": -0.07594968378543854,
          "171": -0.11614052951335907,
          "172": 0.21710839867591858,
          "173": 0.06670091301202774,
          "174": 0.046390704810619354,
          "175": 0.04466031864285469,
          "176": 0.12285996228456497,
          "177": 0.3047981560230255,
          "178": 0.11479927599430084,
          "179": -0.13880571722984314,
          "180": 0.009351138025522232,
          "181": -0.08216333389282227,
          "182": 0.05917351692914963,
          "183": -0.02191321738064289,
          "184": -0.14234881103038788,
          "185": -0.07043331116437912,
          "186": 0.056109435856342316,
          "187": -0.08588609099388123,
          "188": -0.08985306322574615,
          "189": 0.09883732348680496,
          "190": 0.09202641993761063,
          "191": 0.10074838250875473,
          "192": -0.03677796199917793,
          "193": -0.058924950659275055,
          "194": -0.06636588275432587,
          "195": 0.06263046711683273
        }
      },
      "8": {
        "bias": -0.03189048171043396,
        "weights": {
          "0": 0.1532668024301529,
          "1": 0.12205100059509277,
          "2": -0.1164618507027626,
          "3": 0.09447474777698517,
          "4": 0.14202848076820374,
          "5": 0.09950249642133713,
          "6": 0.0163786169141531,
          "7": 0.04070558398962021,
          "8": 0.01322207972407341,
          "9": -0.017083147540688515,
          "10": -0.0507403165102005,
          "11": -0.18790285289287567,
          "12": -0.14955636858940125,
          "13": 0.06890425086021423,
          "14": -0.13640637695789337,
          "15": -0.1919647604227066,
          "16": 0.07820017635822296,
          "17": 0.0018798263045027852,
          "18": 0.1380092352628708,
          "19": 0.06077810004353523,
          "20": 0.05195192992687225,
          "21": -0.1716098040342331,
          "22": -0.1661497950553894,
          "23": 0.1665913313627243,
          "24": -0.10413330793380737,
          "25": -0.22105491161346436,
          "26": 0.02570677176117897,
          "27": 0.15828251838684082,
          "28": 0.07319337129592896,
          "29": 0.020838860422372818,
          "30": -0.15667252242565155,
          "31": -0.019541380926966667,
          "32": 0.05674509331583977,
          "33": -0.0437273308634758,
          "34": 0.1471991091966629,
          "35": 0.14853352308273315,
          "36": 0.11819664388895035,
          "37": -0.25113263726234436,
          "38": 0.11061131209135056,
          "39": -0.02757495641708374,
          "40": -0.16579864919185638,
          "41": 0.16707441210746765,
          "42": 0.025890128687024117,
          "43": 0.042350463569164276,
          "44": -0.168243870139122,
          "45": -0.052426427602767944,
          "46": 0.08671170473098755,
          "47": -0.21424585580825806,
          "48": -0.09454596042633057,
          "49": -0.22303856909275055,
          "50": -0.1425350159406662,
          "51": 0.023794110864400864,
          "52": 0.06934526562690735,
          "53": -0.2288230061531067,
          "54": -0.0961700901389122,
          "55": 0.03461941331624985,
          "56": -0.02433389239013195,
          "57": 0.08326111733913422,
          "58": -0.04236762598156929,
          "59": 0.06725853681564331,
          "60": 0.16546934843063354,
          "61": 0.14910171926021576,
          "62": -0.02300376631319523,
          "63": 0.10078291594982147,
          "64": 0.021735480055212975,
          "65": -0.025771362707018852,
          "66": 0.16774596273899078,
          "67": 0.11263307183980942,
          "68": 0.037993330508470535,
          "69": -0.12714432179927826,
          "70": 0.03994462639093399,
          "71": -0.067044697701931,
          "72": -0.03447286784648895,
          "73": -0.1465916931629181,
          "74": 0.018720285966992378,
          "75": -0.2224709540605545,
          "76": 0.07981157302856445,
          "77": -0.09186118841171265,
          "78": -0.26142701506614685,
          "79": -0.09233096241950989,
          "80": -0.13077668845653534,
          "81": -0.03695066273212433,
          "82": -0.13584916293621063,
          "83": 0.07279792428016663,
          "84": 0.03270600736141205,
          "85": -0.025287430733442307,
          "86": 0.020462721586227417,
          "87": -0.11302844434976578,
          "88": -0.040439099073410034,
          "89": -0.04309502989053726,
          "90": -0.035964883863925934,
          "91": 0.12647442519664764,
          "92": 0.004003887064754963,
          "93": -0.015062776394188404,
          "94": -0.16830489039421082,
          "95": -0.12956683337688446,
          "96": 0.16504110395908356,
          "97": -0.0836745873093605,
          "98": 0.0365016870200634,
          "99": 0.06653568148612976,
          "100": 0.08374883234500885,
          "101": 0.006379495374858379,
          "102": 0.18758955597877502,
          "103": 0.13278724253177643,
          "104": -0.1585770696401596,
          "105": 0.061644114553928375,
          "106": 0.10659901052713394,
          "107": -0.06588983535766602,
          "108": 0.12159562110900879,
          "109": 0.049571916460990906,
          "110": 0.1977826952934265,
          "111": 0.10668154060840607,
          "112": -0.1658882349729538,
          "113": -0.12254433333873749,
          "114": 0.174266517162323,
          "115": -0.06296221911907196,
          "116": -0.1889413595199585,
          "117": -0.16429151594638824,
          "118": -0.06933487951755524,
          "119": 0.03732100501656532,
          "120": 0.11525573581457138,
          "121": 0.07354913651943207,
          "122": -0.017923370003700256,
          "123": 0.009979449212551117,
          "124": 0.07296868413686752,
          "125": 0.10728658735752106,
          "126": -0.15495283901691437,
          "127": 0.01616685464978218,
          "128": -0.19406764209270477,
          "129": 0.13280658423900604,
          "130": -0.10670285671949387,
          "131": -0.14859803020954132,
          "132": -0.26353761553764343,
          "133": -0.1433316469192505,
          "134": 0.08507520705461502,
          "135": 0.08259046077728271,
          "136": 0.07944109290838242,
          "137": -0.10558688640594482,
          "138": 0.11558394879102707,
          "139": -0.10945513844490051,
          "140": 0.08140522241592407,
          "141": -0.16134577989578247,
          "142": -0.0772143304347992,
          "143": -0.13956384360790253,
          "144": 0.16285595297813416,
          "145": 0.07798756659030914,
          "146": -0.16658109426498413,
          "147": -0.02709720842540264,
          "148": -0.1732412874698639,
          "149": -0.13659541308879852,
          "150": -0.15079735219478607,
          "151": -0.015535460785031319,
          "152": 0.17100626230239868,
          "153": 0.027763493359088898,
          "154": -0.05097298324108124,
          "155": -0.0324425995349884,
          "156": 0.059229861944913864,
          "157": -0.15675871074199677,
          "158": 0.17565900087356567,
          "159": 0.1366688758134842,
          "160": -0.18339619040489197,
          "161": 0.006373164709657431,
          "162": -0.10158026963472366,
          "163": -0.07956225425004959,
          "164": 0.02765674889087677,
          "165": 0.0048578823916614056,
          "166": 0.07753497362136841,
          "167": 0.020768389105796814,
          "168": 0.08851213753223419,
          "169": 0.12133332341909409,
          "170": -0.13148321211338043,
          "171": 0.11593353003263474,
          "172": 0.09462722390890121,
          "173": -0.18048392236232758,
          "174": 0.0421159602701664,
          "175": -0.17518125474452972,
          "176": 0.0988391786813736,
          "177": 0.07685288041830063,
          "178": -0.09457026422023773,
          "179": -0.05115097761154175,
          "180": 0.1310056447982788,
          "181": 0.07517963647842407,
          "182": -0.15976935625076294,
          "183": 0.035039763897657394,
          "184": -0.16747842729091644,
          "185": -0.06083165109157562,
          "186": -0.03840494528412819,
          "187": 0.06065960228443146,
          "188": 0.13312774896621704,
          "189": -0.16527968645095825,
          "190": -0.04172665998339653,
          "191": -0.20554009079933167,
          "192": -0.19271793961524963,
          "193": -0.06555086374282837,
          "194": -0.13943199813365936,
          "195": 0.004303809255361557
        }
      },
      "9": {
        "bias": 0.022621067240834236,
        "weights": {
          "0": 0.15693797171115875,
          "1": 0.08098754286766052,
          "2": 0.11757935583591461,
          "3": -0.20474058389663696,
          "4": 0.12747399508953094,
          "5": 0.001970357960090041,
          "6": 0.07653779536485672,
          "7": -0.18132412433624268,
          "8": -0.10085061937570572,
          "9": -0.21400049328804016,
          "10": -0.11686483025550842,
          "11": 0.09618112444877625,
          "12": -0.003962917719036341,
          "13": 0.04095097631216049,
          "14": 0.05337778106331825,
          "15": 0.052451781928539276,
          "16": -0.20232541859149933,
          "17": 0.16777531802654266,
          "18": 0.1575506180524826,
          "19": 0.05167027562856674,
          "20": -0.12597602605819702,
          "21": -0.052466921508312225,
          "22": -0.15814650058746338,
          "23": 0.15238796174526215,
          "24": -0.04942909628152847,
          "25": 0.0302389245480299,
          "26": 0.02251354604959488,
          "27": -0.08621999621391296,
          "28": 0.018834590911865234,
          "29": -0.11710577458143234,
          "30": -0.15744414925575256,
          "31": 0.058314770460128784,
          "32": -0.11031953990459442,
          "33": 0.03523795306682587,
          "34": -0.1397751122713089,
          "35": 0.14337240159511566,
          "36": 0.000769006262999028,
          "37": 0.09512846916913986,
          "38": 0.15640415251255035,
          "39": 0.10546404123306274,
          "40": 0.10829821974039078,
          "41": -0.18709684908390045,
          "42": 0.03174393251538277,
          "43": -0.19911809265613556,
          "44": -0.2007727324962616,
          "45": -0.13029126822948456,
          "46": 0.06440545618534088,
          "47": -0.049493782222270966,
          "48": 0.14789113402366638,
          "49": 0.07373800128698349,
          "50": -0.016516072675585747,
          "51": -0.060707591474056244,
          "52": -0.21135550737380981,
          "53": 0.05989125370979309,
          "54": 0.03798301890492439,
          "55": -0.21478867530822754,
          "56": -0.19606918096542358,
          "57": -0.18771669268608093,
          "58": -0.05707770213484764,
          "59": 0.13057678937911987,
          "60": -0.07813005894422531,
          "61": -0.11032336950302124,
          "62": -0.15244001150131226,
          "63": -0.1369774490594864,
          "64": 0.15184684097766876,
          "65": -0.19909128546714783,
          "66": 0.11261937022209167,
          "67": -0.16760340332984924,
          "68": -0.16050580143928528,
          "69": -0.05050436407327652,
          "70": 0.08996317535638809,
          "71": -0.19750750064849854,
          "72": -0.07345890253782272,
          "73": 0.007235593628138304,
          "74": 0.08959028869867325,
          "75": 0.1336507499217987,
          "76": -0.08523831516504288,
          "77": 0.15575309097766876,
          "78": 0.06412923336029053,
          "79": 0.16036923229694366,
          "80": -0.009654433466494083,
          "81": 0.07116415351629257,
          "82": 0.06866832822561264,
          "83": -0.22305138409137726,
          "84": -0.023955300450325012,
          "85": -0.21881812810897827,
          "86": -0.08035338670015335,
          "87": 0.03902801126241684,
          "88": 0.028979407623410225,
          "89": 0.09581656754016876,
          "90": -0.004928420297801495,
          "91": 0.19552278518676758,
          "92": -0.12803463637828827,
          "93": -0.18737974762916565,
          "94": -0.1397569179534912,
          "95": 0.03351716697216034,
          "96": 0.0595773383975029,
          "97": 0.11695472151041031,
          "98": -0.09909331053495407,
          "99": 0.012866795994341373,
          "100": 0.10749033093452454,
          "101": 0.1260366290807724,
          "102": 0.10316134244203568,
          "103": 0.11623021960258484,
          "104": -0.15050338208675385,
          "105": 0.12028622627258301,
          "106": 0.12998463213443756,
          "107": 0.08313124626874924,
          "108": -0.17834506928920746,
          "109": -0.1306370198726654,
          "110": 0.16273744404315948,
          "111": 0.1470678448677063,
          "112": -0.16866673529148102,
          "113": -0.1368797868490219,
          "114": 0.14739611744880676,
          "115": 0.17478205263614655,
          "116": -0.0552731491625309,
          "117": 0.14759567379951477,
          "118": -0.09337861090898514,
          "119": -0.14432424306869507,
          "120": 0.11139874905347824,
          "121": -0.009084790013730526,
          "122": 0.10627883672714233,
          "123": 0.10445773601531982,
          "124": 0.08035970479249954,
          "125": -0.1859409362077713,
          "126": 0.06926068663597107,
          "127": -0.04849530756473541,
          "128": 0.023529646918177605,
          "129": 0.0006224196404218674,
          "130": -0.07942720502614975,
          "131": -0.17373642325401306,
          "132": 0.04675344377756119,
          "133": -0.03580053895711899,
          "134": 0.15700624883174896,
          "135": -0.026448929682374,
          "136": -0.032154057174921036,
          "137": -0.14108239114284515,
          "138": -0.01026848889887333,
          "139": -0.21474266052246094,
          "140": -0.13343499600887299,
          "141": 0.16760584712028503,
          "142": 0.0839347243309021,
          "143": 0.15050287544727325,
          "144": 0.016361432150006294,
          "145": 0.0006432827212847769,
          "146": 0.06828196346759796,
          "147": -0.14134177565574646,
          "148": -0.20182710886001587,
          "149": 0.0638979971408844,
          "150": 0.14154359698295593,
          "151": 0.10028071701526642,
          "152": 0.029457008466124535,
          "153": 0.15813149511814117,
          "154": -0.0958280861377716,
          "155": 0.12630292773246765,
          "156": -0.08681197464466095,
          "157": -0.19378294050693512,
          "158": -0.12976476550102234,
          "159": 0.11202926188707352,
          "160": 0.18830394744873047,
          "161": 0.1374022364616394,
          "162": 0.15974308550357819,
          "163": 0.07011526077985764,
          "164": -0.07688971608877182,
          "165": -0.12370841950178146,
          "166": -0.055534735321998596,
          "167": 0.1727280467748642,
          "168": -0.03543856739997864,
          "169": 0.09476953744888306,
          "170": 0.12715382874011993,
          "171": -0.10043340921401978,
          "172": -0.2370169311761856,
          "173": -0.017651958391070366,
          "174": -0.0014255159767344594,
          "175": -0.19140878319740295,
          "176": -0.23848408460617065,
          "177": -0.03099561110138893,
          "178": 0.033259317278862,
          "179": -0.03404201194643974,
          "180": -0.11237089335918427,
          "181": 0.14660274982452393,
          "182": 0.08299750089645386,
          "183": 0.16262799501419067,
          "184": 0.060709550976753235,
          "185": 0.17187878489494324,
          "186": 0.1579229086637497,
          "187": -0.004058224149048328,
          "188": -0.09655106067657471,
          "189": -0.19253288209438324,
          "190": -0.09963994473218918,
          "191": 0.09050185978412628,
          "192": -0.17901566624641418,
          "193": -0.12732195854187012,
          "194": -0.11619536578655243,
          "195": -0.15857186913490295
        }
      },
      "10": {
        "bias": 0.04009902477264404,
        "weights": {
          "0": 0.07706613838672638,
          "1": 0.1319350302219391,
          "2": 0.18477433919906616,
          "3": 0.17488569021224976,
          "4": 0.14293715357780457,
          "5": -0.09224864095449448,
          "6": 0.03377030789852142,
          "7": -0.04252270236611366,
          "8": 0.08957671374082565,
          "9": 0.06454604864120483,
          "10": -0.025419550016522408,
          "11": -0.06283076852560043,
          "12": 0.16483886539936066,
          "13": -0.12066095322370529,
          "14": 0.04812728986144066,
          "15": 0.11068218946456909,
          "16": 0.10224589705467224,
          "17": 0.033370714634656906,
          "18": -0.14740817248821259,
          "19": -0.05432334542274475,
          "20": -0.052330467849969864,
          "21": 0.2025790512561798,
          "22": 0.18955744802951813,
          "23": 0.012630007229745388,
          "24": 0.05541070178151131,
          "25": -0.14291518926620483,
          "26": 0.16413839161396027,
          "27": -0.1677093654870987,
          "28": -0.008653467521071434,
          "29": -0.044284552335739136,
          "30": 0.1660050004720688,
          "31": -0.04429735988378525,
          "32": 0.2149287909269333,
          "33": 0.08665495365858078,
          "34": -0.11673308163881302,
          "35": 0.1340298354625702,
          "36": 0.22297778725624084,
          "37": -0.13784314692020416,
          "38": -0.14124813675880432,
          "39": -0.18662606179714203,
          "40": 0.05614324286580086,
          "41": 0.06315649300813675,
          "42": 0.13887430727481842,
          "43": 0.09355457872152328,
          "44": 0.046025149524211884,
          "45": -0.15088704228401184,
          "46": -0.2721753716468811,
          "47": -0.3494578003883362,
          "48": 0.052387118339538574,
          "49": -0.18499788641929626,
          "50": -0.13053029775619507,
          "51": 0.08873797953128815,
          "52": -0.096025250852108,
          "53": -0.05805386230349541,
          "54": -0.06579049676656723,
          "55": 0.155092254281044,
          "56": -0.14346171915531158,
          "57": 0.0894804522395134,
          "58": -0.1024560034275055,
          "59": -0.029010742902755737,
          "60": 0.038984689861536026,
          "61": 0.03479505702853203,
          "62": 0.2631079852581024,
          "63": -0.17222602665424347,
          "64": 0.002271100180223584,
          "65": -0.16142040491104126,
          "66": -0.11581158638000488,
          "67": -0.3125571608543396,
          "68": -0.06104760617017746,
          "69": 0.06723373383283615,
          "70": -0.16468852758407593,
          "71": -0.17529699206352234,
          "72": 0.07156673073768616,
          "73": -0.03382404148578644,
          "74": -0.3115105926990509,
          "75": -0.22386537492275238,
          "76": 0.2032582014799118,
          "77": 0.28547483682632446,
          "78": -0.14297610521316528,
          "79": -0.03485338017344475,
          "80": -0.06367016583681107,
          "81": -0.21587589383125305,
          "82": -0.08016268908977509,
          "83": 0.12504485249519348,
          "84": -0.1178051009774208,
          "85": -0.05678635463118553,
          "86": -0.05128263682126999,
          "87": 0.1676846593618393,
          "88": -0.15990909934043884,
          "89": 0.04148425534367561,
          "90": 0.1518859565258026,
          "91": 0.20003381371498108,
          "92": 0.0040303305722773075,
          "93": 0.14014801383018494,
          "94": -0.12126724421977997,
          "95": -0.06807190179824829,
          "96": 0.0924612507224083,
          "97": -0.1359548419713974,
          "98": -0.021853994578123093,
          "99": -0.18816666305065155,
          "100": 0.1511310189962387,
          "101": 0.15943902730941772,
          "102": -0.03888053819537163,
          "103": -0.08828254044055939,
          "104": 0.12626005709171295,
          "105": -0.15224851667881012,
          "106": -0.12199372053146362,
          "107": -0.15463170409202576,
          "108": -0.10200724005699158,
          "109": 0.01817992515861988,
          "110": 0.11691628396511078,
          "111": 0.09564545750617981,
          "112": -0.09684339910745621,
          "113": 0.048164669424295425,
          "114": 0.0190312210470438,
          "115": 0.0768747478723526,
          "116": 0.17301039397716522,
          "117": -0.039545267820358276,
          "118": -0.1823289543390274,
          "119": -0.3223380744457245,
          "120": -0.12493294477462769,
          "121": 0.20627358555793762,
          "122": 0.05467105656862259,
          "123": 0.024253470823168755,
          "124": -0.0013173838378861547,
          "125": 0.10782743245363235,
          "126": -0.1432611644268036,
          "127": 0.11534495651721954,
          "128": 0.14609751105308533,
          "129": -0.1725282222032547,
          "130": -0.00836521852761507,
          "131": -0.20164693892002106,
          "132": -0.17595429718494415,
          "133": 0.07707687467336655,
          "134": -0.015076515264809132,
          "135": 0.02344992198050022,
          "136": 0.007307243533432484,
          "137": -0.01731785200536251,
          "138": -0.211308553814888,
          "139": -0.1623266339302063,
          "140": 0.13561436533927917,
          "141": -0.045433878898620605,
          "142": 0.18517358601093292,
          "143": 0.08648958057165146,
          "144": 0.09377533197402954,
          "145": 0.22433160245418549,
          "146": -0.2066531926393509,
          "147": -0.27848413586616516,
          "148": 0.040557365864515305,
          "149": -0.04705281928181648,
          "150": 0.0968952625989914,
          "151": 0.07581934332847595,
          "152": -0.11363022774457932,
          "153": 0.0734301283955574,
          "154": 0.16881762444972992,
          "155": 0.09963494539260864,
          "156": 0.05642201751470566,
          "157": 0.14403115212917328,
          "158": 0.08255770057439804,
          "159": -0.11328794062137604,
          "160": -0.00008552282088203356,
          "161": 0.13954882323741913,
          "162": -0.1625232994556427,
          "163": -0.16506710648536682,
          "164": 0.011902021244168282,
          "165": -0.08475368469953537,
          "166": 0.1649833470582962,
          "167": -0.12054619193077087,
          "168": 0.03775714337825775,
          "169": 0.04095000401139259,
          "170": -0.020825929939746857,
          "171": 0.020884864032268524,
          "172": -0.16094715893268585,
          "173": -0.27216964960098267,
          "174": -0.2546325623989105,
          "175": -0.3426106870174408,
          "176": -0.40499818325042725,
          "177": -0.22367319464683533,
          "178": -0.2686344385147095,
          "179": 0.04073967784643173,
          "180": -0.1959289163351059,
          "181": 0.04966907203197479,
          "182": 0.14931638538837433,
          "183": 0.10940256714820862,
          "184": 0.05942017585039139,
          "185": -0.10451126098632812,
          "186": 0.1801247000694275,
          "187": -0.22344647347927094,
          "188": -0.09240024536848068,
          "189": -0.2404543161392212,
          "190": 0.021733423694968224,
          "191": 0.002572890603914857,
          "192": 0.0731232762336731,
          "193": -0.15251080691814423,
          "194": -0.0703655555844307,
          "195": 0.15215085446834564
        }
      },
      "11": {
        "bias": -0.19305753707885742,
        "weights": {
          "0": 0.0909636989235878,
          "1": 0.11784829944372177,
          "2": 0.15644246339797974,
          "3": 0.11136230081319809,
          "4": -0.1251087188720703,
          "5": -0.030916860327124596,
          "6": 0.1476711481809616,
          "7": -0.011337151750922203,
          "8": 0.07111025601625443,
          "9": -0.16416457295417786,
          "10": -0.03801407292485237,
          "11": -0.04613982141017914,
          "12": -0.1634722203016281,
          "13": 0.12449634820222855,
          "14": 0.03930042311549187,
          "15": 0.04134616255760193,
          "16": -0.21240264177322388,
          "17": -0.043417491018772125,
          "18": -0.06280039995908737,
          "19": 0.10529552400112152,
          "20": -0.15861776471138,
          "21": 0.039365388453006744,
          "22": 0.16514861583709717,
          "23": 0.1418621689081192,
          "24": 0.068102166056633,
          "25": 0.07597927749156952,
          "26": 0.0996721088886261,
          "27": -0.15196584165096283,
          "28": -0.17872190475463867,
          "29": 0.005075525026768446,
          "30": -0.004439983516931534,
          "31": 0.09215948730707169,
          "32": 0.08737513422966003,
          "33": -0.037688180804252625,
          "34": -0.1925843358039856,
          "35": 0.010861390270292759,
          "36": -0.27362939715385437,
          "37": 0.07146864384412766,
          "38": 0.18618443608283997,
          "39": -0.010087965056300163,
          "40": 0.11266112327575684,
          "41": -0.1681157350540161,
          "42": -0.1561715304851532,
          "43": -0.051713477820158005,
          "44": -0.044159822165966034,
          "45": 0.12425737082958221,
          "46": 0.0657334178686142,
          "47": 0.04222964495420456,
          "48": -0.01150177139788866,
          "49": -0.0969650000333786,
          "50": -0.14385005831718445,
          "51": -0.02652522549033165,
          "52": -0.1834443062543869,
          "53": 0.017101412639021873,
          "54": -0.18941333889961243,
          "55": -0.21421626210212708,
          "56": -0.059024885296821594,
          "57": 0.15774452686309814,
          "58": 0.02241349220275879,
          "59": -0.08352245390415192,
          "60": -0.05095900222659111,
          "61": -0.09903312474489212,
          "62": -0.12713263928890228,
          "63": -0.03170288726687431,
          "64": -0.17304503917694092,
          "65": -0.2938006818294525,
          "66": 0.05067379027605057,
          "67": 0.04437406361103058,
          "68": 0.024994781240820885,
          "69": 0.10976243764162064,
          "70": 0.05508942902088165,
          "71": -0.10563793033361435,
          "72": 0.1826428771018982,
          "73": 0.10234715789556503,
          "74": -0.13425418734550476,
          "75": -0.22350232303142548,
          "76": 0.23217113316059113,
          "77": 0.16684594750404358,
          "78": 0.07205422967672348,
          "79": -0.21699009835720062,
          "80": -0.12353913486003876,
          "81": 0.10103902220726013,
          "82": -0.06991913914680481,
          "83": -0.1639758050441742,
          "84": 0.02456042729318142,
          "85": 0.153501957654953,
          "86": -0.04657500609755516,
          "87": -0.15837952494621277,
          "88": -0.18217124044895172,
          "89": -0.018724102526903152,
          "90": 0.17140799760818481,
          "91": 0.11408701539039612,
          "92": 0.08950697630643845,
          "93": -0.015339141711592674,
          "94": -0.11890733987092972,
          "95": -0.13937251269817352,
          "96": -0.011957393027842045,
          "97": 0.09870778769254684,
          "98": -0.09993642568588257,
          "99": 0.004801242612302303,
          "100": 0.11556735634803772,
          "101": -0.23511141538619995,
          "102": -0.21733197569847107,
          "103": -0.015239490196108818,
          "104": 0.017333172261714935,
          "105": 0.11704482138156891,
          "106": 0.19550448656082153,
          "107": -0.20578749477863312,
          "108": -0.06930702924728394,
          "109": -0.08512085676193237,
          "110": -0.2170518934726715,
          "111": -0.19627374410629272,
          "112": -0.08360104262828827,
          "113": 0.09166818857192993,
          "114": 0.07127834111452103,
          "115": -0.20750248432159424,
          "116": -0.251197874546051,
          "117": -0.041294824331998825,
          "118": 0.34025612473487854,
          "119": 0.13417597115039825,
          "120": -0.1701839566230774,
          "121": -0.15529055893421173,
          "122": -0.008080514147877693,
          "123": -0.04128899425268173,
          "124": 0.04572411626577377,
          "125": 0.039300985634326935,
          "126": 0.1252266764640808,
          "127": -0.08541985601186752,
          "128": -0.023151710629463196,
          "129": -0.18150849640369415,
          "130": 0.02091442048549652,
          "131": -0.09460636973381042,
          "132": 0.08598741143941879,
          "133": -0.0407167412340641,
          "134": -0.2660829424858093,
          "135": 0.1136726588010788,
          "136": 0.08281726390123367,
          "137": -0.10005590319633484,
          "138": 0.03349742665886879,
          "139": -0.05729851499199867,
          "140": -0.0785454660654068,
          "141": -0.15394961833953857,
          "142": 0.03189059719443321,
          "143": -0.14543361961841583,
          "144": 0.14775794744491577,
          "145": -0.1904827356338501,
          "146": 0.010024674236774445,
          "147": -0.14580780267715454,
          "148": -0.22611521184444427,
          "149": -0.0942351222038269,
          "150": -0.11301418393850327,
          "151": 0.13530705869197845,
          "152": 0.10050997138023376,
          "153": 0.014835802838206291,
          "154": 0.09228691458702087,
          "155": 0.04264157637953758,
          "156": -0.0830102264881134,
          "157": -0.19335010647773743,
          "158": 0.008156065829098225,
          "159": -0.060278475284576416,
          "160": -0.0926823616027832,
          "161": -0.16164427995681763,
          "162": -0.07584257423877716,
          "163": 0.30138060450553894,
          "164": 0.059671223163604736,
          "165": 0.028692428022623062,
          "166": -0.07067068666219711,
          "167": -0.059884071350097656,
          "168": 0.06760348379611969,
          "169": 0.152801975607872,
          "170": 0.11630786210298538,
          "171": 0.03376710042357445,
          "172": -0.11266902834177017,
          "173": 0.0830906480550766,
          "174": 0.006429499480873346,
          "175": 0.20631933212280273,
          "176": 0.12787744402885437,
          "177": -0.06894181668758392,
          "178": 0.12086426466703415,
          "179": -0.1651662141084671,
          "180": -0.12100499123334885,
          "181": -0.20175506174564362,
          "182": 0.1665828973054886,
          "183": 0.06463279575109482,
          "184": -0.1231917291879654,
          "185": -0.09342767298221588,
          "186": -0.10542695224285126,
          "187": 0.14300721883773804,
          "188": 0.0644145980477333,
          "189": 0.10234889388084412,
          "190": 0.21586667001247406,
          "191": -0.15027695894241333,
          "192": 0.07379955053329468,
          "193": -0.03531770780682564,
          "194": 0.13744652271270752,
          "195": -0.14788419008255005
        }
      },
      "12": {
        "bias": 0.13130849599838257,
        "weights": {
          "0": 0.032733004540205,
          "1": 0.14098112285137177,
          "2": -0.09367748349905014,
          "3": -0.01795332506299019,
          "4": -0.17966626584529877,
          "5": 0.03726908192038536,
          "6": -0.03519163280725479,
          "7": 0.09539983421564102,
          "8": -0.04297804459929466,
          "9": 0.1498747020959854,
          "10": -0.1427919715642929,
          "11": 0.048282939940690994,
          "12": -0.13569311797618866,
          "13": 0.02345009334385395,
          "14": 0.0910683125257492,
          "15": -0.08126908540725708,
          "16": 0.07166577875614166,
          "17": 0.05915084481239319,
          "18": -0.20691604912281036,
          "19": 0.048051618039608,
          "20": 0.08239229023456573,
          "21": 0.09181465208530426,
          "22": -0.21381869912147522,
          "23": -0.002538332948461175,
          "24": 0.015593517571687698,
          "25": 0.027453972026705742,
          "26": -0.08497177809476852,
          "27": -0.1446617841720581,
          "28": -0.13711442053318024,
          "29": 0.11799131333827972,
          "30": 0.016560329124331474,
          "31": -0.10655330121517181,
          "32": 0.09593253582715988,
          "33": 0.13202033936977386,
          "34": 0.17889343202114105,
          "35": 0.007850819267332554,
          "36": 0.06426303088665009,
          "37": 0.03129887953400612,
          "38": -0.19529713690280914,
          "39": -0.21892234683036804,
          "40": -0.16630853712558746,
          "41": 0.015549342148005962,
          "42": 0.013845968060195446,
          "43": 0.05817406252026558,
          "44": -0.061214786022901535,
          "45": -0.13079746067523956,
          "46": -0.08327093720436096,
          "47": -0.09048309922218323,
          "48": 0.10354830324649811,
          "49": -0.2216009795665741,
          "50": -0.2546806037425995,
          "51": -0.02858140505850315,
          "52": -0.20653603971004486,
          "53": -0.1452278196811676,
          "54": 0.016938919201493263,
          "55": -0.01645461656153202,
          "56": -0.0939168855547905,
          "57": -0.07555507868528366,
          "58": 0.009537174366414547,
          "59": 0.11650421470403671,
          "60": 0.006004221271723509,
          "61": -0.1313546597957611,
          "62": -0.02988356165587902,
          "63": 0.155118927359581,
          "64": -0.08462797850370407,
          "65": -0.11470810323953629,
          "66": -0.007508574984967709,
          "67": -0.2322874218225479,
          "68": -0.05339594930410385,
          "69": 0.08861972391605377,
          "70": 0.02501039393246174,
          "71": 0.13160668313503265,
          "72": 0.05183243006467819,
          "73": -0.005374669563025236,
          "74": -0.004410044755786657,
          "75": -0.19667057693004608,
          "76": 0.1928500384092331,
          "77": -0.08004337549209595,
          "78": -0.04036301001906395,
          "79": 0.15830804407596588,
          "80": 0.005312178283929825,
          "81": -0.20003287494182587,
          "82": 0.06088516116142273,
          "83": 0.05482117086648941,
          "84": 0.14750990271568298,
          "85": -0.08186746388673782,
          "86": 0.09503800421953201,
          "87": 0.016218597069382668,
          "88": -0.2160976082086563,
          "89": -0.07834472507238388,
          "90": -0.15182441473007202,
          "91": -0.09821480512619019,
          "92": 0.031041348353028297,
          "93": -0.14661625027656555,
          "94": -0.17326940596103668,
          "95": -0.2041325569152832,
          "96": -0.048718106001615524,
          "97": 0.11175575107336044,
          "98": 0.0024747473653405905,
          "99": 0.15703777968883514,
          "100": -0.20132875442504883,
          "101": 0.006125439424067736,
          "102": 0.1982792764902115,
          "103": 0.007564802188426256,
          "104": 0.05095234513282776,
          "105": 0.03766747936606407,
          "106": -0.1492919623851776,
          "107": 0.15453939139842987,
          "108": 0.15549315512180328,
          "109": -0.09558363258838654,
          "110": 0.11774656921625137,
          "111": -0.18764038383960724,
          "112": 0.10343824326992035,
          "113": -0.1674693077802658,
          "114": -0.21125052869319916,
          "115": 0.1604665368795395,
          "116": 0.19082599878311157,
          "117": -0.08038964867591858,
          "118": -0.06903859227895737,
          "119": 0.03313914313912392,
          "120": -0.23227353394031525,
          "121": 0.048885803669691086,
          "122": -0.06264299899339676,
          "123": -0.17394255101680756,
          "124": 0.0018113416153937578,
          "125": 0.09684788435697556,
          "126": -0.1039164736866951,
          "127": 0.1623436063528061,
          "128": 0.11383585631847382,
          "129": -0.18092681467533112,
          "130": 0.12454860657453537,
          "131": 0.06648794561624527,
          "132": 0.0005372229497879744,
          "133": -0.16411092877388,
          "134": -0.09430164843797684,
          "135": -0.17628496885299683,
          "136": -0.05369313806295395,
          "137": 0.08630893379449844,
          "138": -0.21279221773147583,
          "139": 0.1158347949385643,
          "140": -0.23680035769939423,
          "141": 0.14024871587753296,
          "142": -0.023811524733901024,
          "143": -0.05488016456365585,
          "144": 0.02941541001200676,
          "145": -0.04633647948503494,
          "146": 0.06420769542455673,
          "147": -0.21815437078475952,
          "148": 0.08655156940221786,
          "149": -0.08023374527692795,
          "150": -0.0816679447889328,
          "151": -0.005246466491371393,
          "152": -0.21128642559051514,
          "153": 0.094798244535923,
          "154": 0.07925299555063248,
          "155": -0.12733244895935059,
          "156": 0.16163279116153717,
          "157": 0.17532026767730713,
          "158": 0.049496475607156754,
          "159": 0.08656784892082214,
          "160": -0.04328548535704613,
          "161": 0.10070028901100159,
          "162": -0.17105741798877716,
          "163": -0.07088054716587067,
          "164": 0.06047336384654045,
          "165": 0.1368907243013382,
          "166": 0.10909733176231384,
